{"n_classes": 3, "learning_rate": 0.1, "classes": ["Pizza", "Shawarma", "Sushi"], "tree_list": [[{"children_left": [1, 2, -1, 4, 5, 6, 7, 8, -1, -1, -1, -1, -1, -1, 15, 16, 17, 18, 19, 20, -1, 22, 23, 24, -1, 26, -1, -1, -1, -1, -1, -1, -1, -1, 35, 36, 37, -1, -1, -1, -1], "children_right": [14, 3, -1, 13, 12, 11, 10, 9, -1, -1, -1, -1, -1, -1, 34, 33, 32, 31, 30, 21, -1, 29, 28, 25, -1, 27, -1, -1, -1, -1, -1, -1, -1, -1, 40, 39, 38, -1, -1, -1, -1], "feature": [6, 8, -2, 0, 8, 49, 67, 11, -2, -2, -2, -2, -2, -2, 8, 29, 35, 44, 43, 60, -2, 36, 28, 1, -2, 67, -2, -2, -2, -2, -2, -2, -2, -2, 11, 49, 0, -2, -2, -2, -2], "threshold": [0.5, 5.25, -2.0, 3.5, 14.833333492279053, 0.5, 0.5, 0.5, -2.0, -2.0, -2.0, -2.0, -2.0, -2.0, 6.25, 0.5, 0.5, 0.5, 0.5, 0.5, -2.0, 0.5, 0.5, 3.25, -2.0, 0.5, -2.0, -2.0, -2.0, -2.0, -2.0, -2.0, -2.0, -2.0, 0.5, 0.5, 3.5, -2.0, -2.0, -2.0, -2.0], "value": [-9.856849636019868e-17, -0.29931999398224934, -0.6713044596559232, -0.31150730469775323, -0.29201581027667917, -0.31089969866551703, -0.31925873129009125, -0.3283529038400499, -1.00349040139616, -0.8967163486939415, -0.8735045981065023, -0.6887879302738306, -0.7168093831819832, -1.0034904013961603, 0.30245971419884293, 0.5192497868712692, 0.5500621118012412, 0.591288465356362, 0.6041626409017704, 0.612945956928077, 1.3520099127618863, 0.6422483785731437, 0.6528535732133927, 0.6583954451345749, 1.828831838704811, 0.6643478260869563, 1.9861830742659752, 1.986183074265976, 1.4879041616556195, 1.1319906526482224, -1.0034904013961605, -1.0034904013961603, 0.6063337778065284, -0.7045230538299471, 0.12807022356329736, 0.00917541229385303, -0.08949832775919742, 0.0862036691722816, -0.6977283413852603, 1.5821731451224434, 1.353075750008112]}, {"children_left": [1, 2, 3, -1, 5, 6, 7, 8, 9, -1, -1, -1, -1, -1, -1, 16, -1, 18, 19, 20, 21, -1, -1, -1, -1, -1, 27, 28, 29, -1, 31, 32, -1, 34, -1, -1, -1, 38, 39, 40, -1, -1, -1, 44, 45, 46, 47, 48, -1, -1, -1, -1, -1, -1, -1], "children_right": [26, 15, 4, -1, 14, 13, 12, 11, 10, -1, -1, -1, -1, -1, -1, 17, -1, 25, 24, 23, 22, -1, -1, -1, -1, -1, 54, 37, 30, -1, 36, 33, -1, 35, -1, -1, -1, 43, 42, 41, -1, -1, -1, 53, 52, 51, 50, 49, -1, -1, -1, -1, -1, -1, -1], "feature": [6, 66, 1, -2, 8, 57, 0, 67, 1, -2, -2, -2, -2, -2, -2, 5, -2, 49, 1, 50, 7, -2, -2, -2, -2, -2, 21, 8, 5, -2, 65, 1, -2, 1, -2, -2, -2, 8, 68, 69, -2, -2, -2, 56, 46, 50, 27, 68, -2, -2, -2, -2, -2, -2, -2], "threshold": [0.5, 0.5, 5.75, -2.0, 19.0, 0.5, 4.5, 0.5, 6.25, -2.0, -2.0, -2.0, -2.0, -2.0, -2.0, 0.5, -2.0, 0.5, 7.25, 0.5, 0.5, -2.0, -2.0, -2.0, -2.0, -2.0, 0.5, 6.25, 0.5, -2.0, 0.5, 3.25, -2.0, 3.75, -2.0, -2.0, -2.0, 13.75, 0.5, 0.5, -2.0, -2.0, -2.0, 0.5, 0.5, 0.5, 0.5, 0.5, -2.0, -2.0, -2.0, -2.0, -2.0, -2.0, -2.0], "value": [1.949648172374351e-16, 0.2404182337896828, 0.4713287738153394, 0.7767170048477989, 0.5809516700877009, 0.6043634939287093, 0.6168760064412219, 0.6287874153375549, 0.6539130434782598, 1.9262981574539368, 1.926298157453935, 1.6961573993638406, 1.4064507980033671, 0.453397305677323, 0.3194972282430853, -0.1298707403055222, 0.8461708661510868, -0.28435856146001004, -0.29018633540372596, -0.3108756889161046, -0.31751552795030985, -0.9723707188424386, -0.6267299856255272, 0.453397305677323, -0.3993347664038744, 1.9262981574539368, -0.24294010337488756, -0.24766867884160107, -0.3107928388746807, -0.7370294101421317, -0.3350979455327273, -0.3460869565217384, -1.0195035460992903, -0.3460869565217385, -1.0195035460992907, -1.0195035460992905, -0.8012960125027553, -0.19640542785931792, -0.11006211180124227, -0.1744451654769628, -0.626729985625527, 0.45339730567732295, 0.6170529558747245, -0.2872634271099737, -0.31184038117927276, -0.31830917874396075, -0.32496019595835823, -0.3314884163757531, -1.0195035460992903, -0.7517033912308152, -0.4303432053886452, 0.453397305677323, 0.453397305677323, 0.663811713073982, 1.9262981574539368]}, {"children_left": [1, 2, 3, 4, 5, 6, -1, -1, 9, -1, 11, 12, 13, 14, 15, 16, 17, 18, 19, 20, 21, 22, 23, 24, -1, -1, -1, -1, -1, -1, -1, -1, -1, -1, -1, -1, -1, -1, -1, -1, -1, 42, 43, -1, -1, -1, -1], "children_right": [46, 41, 40, 39, 8, 7, -1, -1, 10, -1, 38, 37, 36, 35, 34, 33, 32, 31, 30, 29, 28, 27, 26, 25, -1, -1, -1, -1, -1, -1, -1, -1, -1, -1, -1, -1, -1, -1, -1, -1, -1, 45, 44, -1, -1, -1, -1], "feature": [57, 35, 43, 44, 2, 6, -2, -2, 1, -2, 16, 42, 31, 22, 53, 24, 39, 38, 8, 36, 0, 27, 58, 60, -2, -2, -2, -2, -2, -2, -2, -2, -2, -2, -2, -2, -2, -2, -2, -2, -2, 1, 68, -2, -2, -2, -2], "threshold": [0.5, 0.5, 0.5, 0.5, 0.5, 0.5, -2.0, -2.0, 3.25, -2.0, 0.5, 0.5, 0.5, 0.5, 0.5, 0.5, 0.5, 0.5, 24.25, 0.5, 4.5, 0.5, 0.5, 0.5, -2.0, -2.0, -2.0, -2.0, -2.0, -2.0, -2.0, -2.0, -2.0, -2.0, -2.0, -2.0, -2.0, -2.0, -2.0, -2.0, -2.0, 5.25, 0.5, -2.0, -2.0, -2.0, -2.0], "value": [1.691400642733282e-16, -0.062245470142695866, -0.1556488337137461, -0.18909975105656437, -0.20684782608695904, 0.0031677018633539888, 0.9179738631878748, -0.44927028335277935, -0.25618033265246776, -0.27270224581815167, -0.27527021535961216, -0.2770623676925603, -0.2788612447997413, -0.2806668846028134, -0.2824793253090988, -0.28600280504909054, -0.28952523738131164, -0.2930670711156072, -0.29491456606327426, -0.29849802371541717, -0.30498653328203346, -0.30889318806639027, -0.31327333839314925, -0.31571634030313256, -0.9346149758294761, -0.9778911564625851, -0.5938150533437417, -0.7415366314663737, -0.7320824504665253, -0.7502905027625293, -0.20973895022489866, 0.5584132560127877, 0.04631178518766346, 0.25115237351771313, 0.5584132560127877, 2.0947176684881605, 2.0947176684881605, 2.0947176684881605, 2.0947176684881605, 2.0947176684881605, 2.094717668488159, 0.22049882035726356, 0.43909207161125435, 1.5047767740976175, -0.41923500647154033, -0.07121969991974218, 1.7902249020516008]}], [{"children_left": [1, 2, -1, 4, 5, 6, 7, 8, -1, -1, -1, -1, -1, 14, 15, -1, -1, -1, 19, 20, 21, 22, 23, 24, 25, -1, 27, -1, -1, -1, -1, -1, -1, -1, 35, 36, 37, -1, -1, -1, -1], "children_right": [18, 3, -1, 13, 12, 11, 10, 9, -1, -1, -1, -1, -1, 17, 16, -1, -1, -1, 34, 33, 32, 31, 30, 29, 26, -1, 28, -1, -1, -1, -1, -1, -1, -1, 40, 39, 38, -1, -1, -1, -1], "feature": [6, 8, -2, 0, 8, 49, 67, 11, -2, -2, -2, -2, -2, 66, 2, -2, -2, -2, 8, 29, 35, 44, 43, 69, 1, -2, 5, -2, -2, -2, -2, -2, -2, -2, 11, 49, 0, -2, -2, -2, -2], "threshold": [0.5, 5.25, -2.0, 3.5, 14.833333492279053, 0.5, 0.5, 0.5, -2.0, -2.0, -2.0, -2.0, -2.0, 0.5, 0.5, -2.0, -2.0, -2.0, 6.25, 0.5, 0.5, 0.5, 0.5, 0.5, 3.25, -2.0, 0.5, -2.0, -2.0, -2.0, -2.0, -2.0, -2.0, -2.0, 0.5, 0.5, 3.5, -2.0, -2.0, -2.0, -2.0], "value": [-0.0002487070442125823, -0.2688376320571027, -0.6184656841255339, -0.2803767068875276, -0.26236067757184334, -0.27936020471542394, -0.28688919303463356, -0.2959364553834835, -0.9565042246595872, -0.8475116665142942, -0.8200810231978077, -0.6424235935849524, -0.6699943465239299, -0.30269386031911905, -0.2993916018211158, -0.9419452879969815, -0.9537263790238771, -0.9638753994651057, 0.27115758431496684, 0.4675122096812348, 0.4951622267630557, 0.5316574927743469, 0.5432225213889853, 0.5511003022955425, 0.5674854772412918, 1.223046575129289, 0.584436814549728, 1.5284819252929571, 1.6677331261100268, 0.8314266777429123, -0.951980969980434, -0.9537769650397946, 0.549909890537577, -0.6543468672672044, 0.11320670271118732, 0.005972002639387299, -0.08349191070932804, 0.07749476886665493, -0.6652705017584017, 1.3414952034123424, 1.146081111481391]}, {"children_left": [1, 2, 3, 4, -1, 6, 7, -1, 9, 10, -1, -1, -1, -1, -1, 16, -1, 18, 19, 20, 21, -1, -1, -1, -1, -1, 27, 28, 29, -1, -1, 32, 33, 34, 35, -1, 37, 38, 39, -1, 41, 42, -1, -1, -1, -1, -1, -1, -1, -1, -1], "children_right": [26, 15, 14, 5, -1, 13, 8, -1, 12, 11, -1, -1, -1, -1, -1, 17, -1, 25, 24, 23, 22, -1, -1, -1, -1, -1, 50, 31, 30, -1, -1, 49, 48, 47, 36, -1, 46, 45, 40, -1, 44, 43, -1, -1, -1, -1, -1, -1, -1, -1, -1], "feature": [6, 66, 8, 2, -2, 57, 1, -2, 0, 67, -2, -2, -2, -2, -2, 5, -2, 49, 1, 50, 7, -2, -2, -2, -2, -2, 21, 5, 8, -2, -2, 69, 1, 13, 60, -2, 68, 35, 0, -2, 27, 8, -2, -2, -2, -2, -2, -2, -2, -2, -2], "threshold": [0.5, 0.5, 16.5, 0.5, -2.0, 0.5, 5.166666746139526, -2.0, 4.5, 0.5, -2.0, -2.0, -2.0, -2.0, -2.0, 0.5, -2.0, 0.5, 7.25, 0.5, 0.5, -2.0, -2.0, -2.0, -2.0, -2.0, 0.5, 0.5, 6.5, -2.0, -2.0, 0.5, 12.5, 0.5, 0.5, -2.0, 0.5, 0.5, 1.5, -2.0, 0.5, 6.25, -2.0, -2.0, -2.0, -2.0, -2.0, -2.0, -2.0, -2.0, -2.0], "value": [7.744773433373652e-05, 0.21559254064336367, 0.42522339379933016, 0.46349149812763185, 0.3954901237521675, 0.5094218244976122, 0.5231027718691557, 1.2030531818781525, 0.5629630108498525, 0.5705011681163856, 1.6261875398583665, 1.471832003439939, 1.3073367075396083, 0.07984935062075384, -0.23541700349131187, -0.12057225090404157, 0.7405217360046518, -0.26143826820107047, -0.2667156414915602, -0.28528296161083194, -0.2912449337926041, -0.9300435267721999, -0.5880162854891176, 0.3787502308335109, -0.381207678704373, 1.6189828913371707, -0.21769829300241353, -0.2219748399926016, -0.12863397847123673, -0.6781292321354849, -0.10117529116531312, -0.2533075705032944, -0.2654012703571462, -0.27558221004702865, -0.2779846590590088, -0.6119536705426466, -0.29000555795854854, -0.2985156353452516, -0.30797062335347214, -0.3812163634027755, -0.31187455639774037, -0.3154203999037541, -0.9643409291117369, -0.9829906723173888, -0.6693642798770878, -0.7635445872488894, -0.715217519909945, 1.8024890249516803, -0.1909906776404195, -0.2655290284357663, 1.6398148297853914]}, {"children_left": [1, 2, 3, 4, 5, 6, -1, -1, 9, 10, 11, 12, 13, 14, 15, 16, -1, 18, 19, -1, 21, 22, 23, -1, -1, -1, -1, 28, -1, 30, 31, -1, 33, -1, -1, -1, -1, -1, -1, -1, 41, -1, 43, -1, 45, 46, -1, -1, -1, -1, -1, -1, -1, 54, 55, -1, -1, -1, -1], "children_right": [58, 53, 52, 51, 8, 7, -1, -1, 50, 49, 40, 39, 38, 37, 36, 17, -1, 27, 20, -1, 26, 25, 24, -1, -1, -1, -1, 29, -1, 35, 32, -1, 34, -1, -1, -1, -1, -1, -1, -1, 42, -1, 44, -1, 48, 47, -1, -1, -1, -1, -1, -1, -1, 57, 56, -1, -1, -1, -1], "feature": [29, 35, 43, 44, 2, 6, -2, -2, 25, 31, 66, 42, 24, 53, 27, 0, -2, 5, 1, -2, 8, 39, 1, -2, -2, -2, -2, 3, -2, 0, 60, -2, 1, -2, -2, -2, -2, -2, -2, -2, 6, -2, 1, -2, 22, 39, -2, -2, -2, -2, -2, -2, -2, 1, 8, -2, -2, -2, -2], "threshold": [0.5, 0.5, 0.5, 0.5, 0.5, 0.5, -2.0, -2.0, 0.5, 0.5, 0.5, 0.5, 0.5, 0.5, 0.5, 1.5, -2.0, 0.5, 3.25, -2.0, 22.5, 0.5, 5.25, -2.0, -2.0, -2.0, -2.0, 0.5, -2.0, 4.5, 0.5, -2.0, 3.25, -2.0, -2.0, -2.0, -2.0, -2.0, -2.0, -2.0, 0.5, -2.0, 3.25, -2.0, 0.5, 0.5, -2.0, -2.0, -2.0, -2.0, -2.0, -2.0, -2.0, 6.75, 10.75, -2.0, -2.0, -2.0, -2.0], "value": [0.00017125930987884662, -0.056253515468467435, -0.14097755220862337, -0.17137385603721791, -0.18748670105091816, 0.0044690925029360635, 0.8065388535444469, -0.41409205069414434, -0.23257698812732708, -0.23564431544623607, -0.23865959719852786, -0.26912018150575434, -0.2714280897481494, -0.2737862772626964, -0.276074964844002, -0.280402106507694, -0.42124862112070643, -0.28286947260389766, -0.2917291186404343, -0.96487799529377, -0.2905417983741624, -0.29015844875283403, -0.28967800945951394, -0.943788192048406, -0.9366776396402572, -0.9731432908906512, -0.9813508077819572, -0.2749424208869962, -0.540009768275512, -0.27966025527862404, -0.2844616060028925, -0.8474806384242987, -0.2898427606888383, -0.9581713931945092, -0.9371305718256115, -0.6786201323950986, -0.6422387046640164, 0.5091726696001263, 0.5807904187693794, 1.8178774456929314, -0.17895685195636526, 0.003158101922778709, -0.23578982426372483, -0.1438640042216117, -0.2696513673634132, -0.27659549586381793, -0.9159687041449305, 0.5066166500914546, 1.750686858892355, 1.947765703603533, 2.0738181541245524, 1.751264886519598, 1.754758547708751, 0.20021730892712, 0.35518766315321987, 0.7288839847384068, 1.3942838307722443, -0.26029139792444506, 1.5071800803288358]}], [{"children_left": [1, 2, -1, 4, 5, 6, 7, 8, 9, -1, -1, -1, -1, -1, -1, 16, 17, -1, -1, -1, 21, 22, 23, 24, 25, 26, -1, 28, 29, 30, -1, 32, 33, -1, -1, -1, -1, -1, -1, -1, -1, -1, 43, 44, 45, -1, -1, -1, -1], "children_right": [20, 3, -1, 15, 14, 13, 12, 11, 10, -1, -1, -1, -1, -1, -1, 19, 18, -1, -1, -1, 42, 41, 40, 39, 38, 27, -1, 37, 36, 31, -1, 35, 34, -1, -1, -1, -1, -1, -1, -1, -1, -1, 48, 47, 46, -1, -1, -1, -1], "feature": [6, 8, -2, 0, 11, 67, 49, 56, 66, -2, -2, -2, -2, -2, -2, 66, 35, -2, -2, -2, 8, 29, 35, 44, 43, 60, -2, 56, 28, 1, -2, 69, 2, -2, -2, -2, -2, -2, -2, -2, -2, -2, 11, 49, 0, -2, -2, -2, -2], "threshold": [0.5, 5.25, -2.0, 3.5, 0.5, 0.5, 0.5, 0.5, 0.5, -2.0, -2.0, -2.0, -2.0, -2.0, -2.0, 0.5, 0.5, -2.0, -2.0, -2.0, 6.25, 0.5, 0.5, 0.5, 0.5, 0.5, -2.0, 0.5, 0.5, 3.25, -2.0, 0.5, 0.5, -2.0, -2.0, -2.0, -2.0, -2.0, -2.0, -2.0, -2.0, -2.0, 0.5, 0.5, 3.5, -2.0, -2.0, -2.0, -2.0], "value": [-0.0006746041552688378, -0.24098572288550657, -0.5706370631701785, -0.2518363291219253, -0.23482221341741788, -0.24653965227647914, -0.26080134247868453, -0.27063922496569054, -0.2763938362979449, -0.9119862999008265, -0.9293075114194395, -0.7462416274759274, -0.5520011832218515, -0.6675288567220884, -0.5839176542912272, -0.2729123733504824, -0.2672433925300581, -0.913672492180707, -0.9018544115768533, -0.9300418687864294, 0.24215726057563525, 0.4207201866554823, 0.4454128756639058, 0.4776854886391217, 0.4880511749652508, 0.4951030561274105, 0.9574020152649727, 0.5210672302219552, 0.5308360781939069, 0.5360090015648298, 1.3766777830691284, 0.5395211734296836, 0.5383408897589861, 1.471648003383231, 1.4371310093435734, 1.5272878959915528, 1.0409470831831573, 0.7546852413947346, -0.9089057017868117, -0.9115486848808787, 0.4997651713151697, -0.6037574574294226, 0.09851831372907134, 0.002081602201785518, -0.07873190938143834, 0.06621880327244338, -0.6365878308608574, 1.1602737720429388, 0.9864311272726709]}, {"children_left": [1, 2, 3, -1, 5, 6, 7, 8, 9, -1, -1, -1, -1, -1, -1, 16, -1, 18, 19, 20, -1, -1, -1, -1, 25, 26, 27, -1, -1, 30, 31, 32, 33, -1, 35, 36, -1, -1, 39, 40, 41, -1, 43, 44, -1, -1, -1, -1, -1, -1, -1, -1, -1], "children_right": [24, 15, 4, -1, 14, 13, 12, 11, 10, -1, -1, -1, -1, -1, -1, 17, -1, 23, 22, 21, -1, -1, -1, -1, 52, 29, 28, -1, -1, 51, 50, 49, 34, -1, 38, 37, -1, -1, 48, 47, 42, -1, 46, 45, -1, -1, -1, -1, -1, -1, -1, -1, -1], "feature": [6, 66, 1, -2, 8, 29, 0, 67, 2, -2, -2, -2, -2, -2, -2, 5, -2, 49, 1, 8, -2, -2, -2, -2, 21, 5, 8, -2, -2, 69, 1, 13, 60, -2, 7, 8, -2, -2, 68, 35, 0, -2, 27, 8, -2, -2, -2, -2, -2, -2, -2, -2, -2], "threshold": [0.5, 0.5, 5.75, -2.0, 19.0, 0.5, 4.5, 0.5, 0.5, -2.0, -2.0, -2.0, -2.0, -2.0, -2.0, 0.5, -2.0, 0.5, 8.5, 11.25, -2.0, -2.0, -2.0, -2.0, 0.5, 0.5, 6.5, -2.0, -2.0, 0.5, 12.5, 0.5, 0.5, -2.0, 0.5, 6.25, -2.0, -2.0, 0.5, 0.5, 1.5, -2.0, 0.5, 6.25, -2.0, -2.0, -2.0, -2.0, -2.0, -2.0, -2.0, -2.0, -2.0], "value": [0.00020079717550979052, 0.19359278086953474, 0.3831279731879685, 0.5851060266384601, 0.47478635517614476, 0.49363951469378314, 0.5027886601410938, 0.5132391785814844, 0.5358628945417229, 1.6297076322234485, 1.422211700090238, 1.252114656754664, 1.0290596743749034, 0.4910703401914083, 0.2731788698060637, -0.11034653654200678, 0.6688919468889925, -0.23979953180875457, -0.24462273737595905, -0.2535644642385699, -0.6269452967273076, -0.9179841471438202, -0.040129150530649166, 1.4390660164301703, -0.1952197737600612, -0.19908652581953465, -0.1130814396525518, -0.6263956650732513, -0.09008182073705293, -0.22795677774882725, -0.23901361341462313, -0.24839862136414728, -0.25059087857265866, -0.5644665226043469, -0.2619632647765852, -0.28638943940504735, -0.9205825128847714, -0.9450729473264192, -0.24457080535527148, -0.25798128898751016, -0.27409999059742235, 0.07693929151619373, -0.2806869781148729, -0.28668091193736545, -0.9197810633014988, -0.9515186275688293, -0.3775261691943489, -0.5037027474118021, -0.5442640094615845, 1.5800871585553649, -0.1619727115592215, -0.2362135354298622, 1.4439955273948415]}, {"children_left": [1, 2, 3, 4, 5, 6, -1, -1, 9, 10, 11, 12, 13, 14, 15, 16, 17, 18, -1, 20, 21, 22, 23, 24, 25, 26, 27, -1, 29, 30, -1, -1, -1, -1, -1, -1, -1, -1, -1, -1, -1, -1, -1, -1, -1, -1, -1, -1, -1, -1, -1, 52, 53, -1, -1, -1, -1], "children_right": [56, 51, 50, 49, 8, 7, -1, -1, 48, 47, 46, 45, 44, 43, 42, 41, 40, 19, -1, 39, 38, 37, 36, 35, 34, 33, 28, -1, 32, 31, -1, -1, -1, -1, -1, -1, -1, -1, -1, -1, -1, -1, -1, -1, -1, -1, -1, -1, -1, -1, -1, 55, 54, -1, -1, -1, -1], "feature": [57, 35, 43, 44, 2, 0, -2, -2, 25, 31, 16, 30, 8, 39, 42, 22, 24, 1, -2, 38, 53, 56, 15, 0, 27, 63, 8, -2, 66, 1, -2, -2, -2, -2, -2, -2, -2, -2, -2, -2, -2, -2, -2, -2, -2, -2, -2, -2, -2, -2, -2, 1, 68, -2, -2, -2, -2], "threshold": [0.5, 0.5, 0.5, 0.5, 0.5, 4.5, -2.0, -2.0, 0.5, 0.5, 0.5, 0.5, 22.25, 0.5, 0.5, 0.5, 0.5, 3.25, -2.0, 0.5, 0.5, 0.5, 0.5, 4.5, 0.5, 0.5, 6.416666746139526, -2.0, 0.5, 5.5, -2.0, -2.0, -2.0, -2.0, -2.0, -2.0, -2.0, -2.0, -2.0, -2.0, -2.0, -2.0, -2.0, -2.0, -2.0, -2.0, -2.0, -2.0, -2.0, -2.0, -2.0, 5.25, 0.5, -2.0, -2.0, -2.0, -2.0], "value": [0.00047380697975904647, -0.050499228339209015, -0.12727665640084893, -0.15479737380478337, -0.1693823043836101, 0.004554808349607776, -0.1787408620063775, 1.5353586270509252, -0.21024001542832552, -0.21304443776083204, -0.2158429188321825, -0.2185438863960263, -0.22001178312002453, -0.22513839305892924, -0.2291764944077207, -0.23063140512616123, -0.23202030427571688, -0.234892651082836, -0.514885356900231, -0.24277646159750518, -0.24440800184452874, -0.24577779678971756, -0.2510956156599866, -0.25292281623467433, -0.25611669467903153, -0.25987191656473624, -0.2629585131706266, -0.8980591461717732, -0.2668937037744102, -0.2625973402633207, -0.9131658071027544, -0.8997663156931387, -0.9325884794420084, -0.8687512306880232, -0.6659684445987623, -0.6620186635711746, -0.5038580740138506, -0.674289236411815, -0.04200557371910796, 0.5205898492583836, 0.28443655757247605, 1.5044643905270305, 1.6551336690542002, 0.31489331604233706, 0.08195347585781575, 1.8757118829734432, 0.9273737030507853, 1.736282374813676, 1.7694491994326687, 1.5190866531089096, 1.522522448216347, 0.18191616435901153, 0.3641702539650736, 1.1421252705607041, -0.45860870868910586, -0.06574412155996626, 1.3055756367945757]}]]}