{"children_left": [1, 2, 3, 4, 5, 6, 7, -1, -1, 10, 11, -1, -1, -1, -1, -1, 17, -1, -1, 20, 21, 22, -1, -1, -1, 26, 27, 28, 29, -1, -1, -1, -1, -1, 35, 36, 37, 38, 39, 40, 41, 42, 43, -1, -1, -1, -1, -1, 49, -1, -1, -1, 53, 54, -1, -1, -1, 58, 59, -1, 61, -1, -1, -1, 65, 66, 67, -1, -1, -1, -1], "children_right": [34, 19, 16, 15, 14, 9, 8, -1, -1, 13, 12, -1, -1, -1, -1, -1, 18, -1, -1, 25, 24, 23, -1, -1, -1, 33, 32, 31, 30, -1, -1, -1, -1, -1, 64, 57, 52, 51, 48, 47, 46, 45, 44, -1, -1, -1, -1, -1, 50, -1, -1, -1, 56, 55, -1, -1, -1, 63, 60, -1, 62, -1, -1, -1, 70, 69, 68, -1, -1, -1, -1], "feature": [6, 66, 72, 73, 71, 1, 72, -2, -2, 29, 73, -2, -2, -2, -2, -2, 73, -2, -2, 5, 72, 73, -2, -2, -2, 72, 73, 71, 49, -2, -2, -2, -2, -2, 73, 71, 73, 72, 71, 73, 72, 71, 73, -2, -2, -2, -2, -2, 31, -2, -2, -2, 72, 61, -2, -2, -2, 72, 73, -2, 71, -2, -2, -2, 71, 72, 27, -2, -2, -2, -2], "threshold": [0.5, 0.5, -52.914602279663086, -61.85548782348633, -67.12889099121094, 5.75, -67.15118408203125, -2.0, -2.0, 0.5, -69.03682708740234, -2.0, -2.0, -2.0, -2.0, -2.0, -52.689910888671875, -2.0, -2.0, 0.5, -57.64151573181152, -64.04555702209473, -2.0, -2.0, -2.0, -54.05731201171875, -54.3953971862793, -69.26400756835938, 0.5, -2.0, -2.0, -2.0, -2.0, -2.0, -53.023141860961914, -59.02789497375488, -65.76633834838867, -65.98596954345703, -71.88824844360352, -84.69994354248047, -87.27056884765625, -98.18724822998047, -108.6512222290039, -2.0, -2.0, -2.0, -2.0, -2.0, 0.5, -2.0, -2.0, -2.0, -60.46866035461426, 0.5, -2.0, -2.0, -2.0, -51.52258110046387, -56.595266342163086, -2.0, -52.547170639038086, -2.0, -2.0, -2.0, -47.62666893005371, -49.51547622680664, 0.5, -2.0, -2.0, -2.0, -2.0], "value": [[[0.3356521739130435, 0.34608695652173915, 0.3182608695652174]], [[0.03633217993079585, 0.5865051903114187, 0.3771626297577855]], [[0.03651685393258427, 0.8174157303370787, 0.14606741573033707]], [[0.07926829268292683, 0.6463414634146342, 0.27439024390243905]], [[0.06766917293233082, 0.7894736842105263, 0.14285714285714285]], [[0.01639344262295082, 0.8278688524590164, 0.1557377049180328]], [[0.05263157894736842, 0.5526315789473685, 0.39473684210526316]], [[0.08695652173913043, 0.2608695652173913, 0.6521739130434783]], [[0.0, 1.0, 0.0]], [[0.0, 0.9523809523809523, 0.047619047619047616]], [[0.0, 0.9873417721518988, 0.012658227848101266]], [[0.0, 1.0, 0.0]], [[0.0, 0.9285714285714286, 0.07142857142857142]], [[0.0, 0.4, 0.6]], [[0.6363636363636364, 0.36363636363636365, 0.0]], [[0.12903225806451613, 0.03225806451612903, 0.8387096774193549]], [[0.0, 0.9635416666666666, 0.036458333333333336]], [[0.0, 1.0, 0.0]], [[0.0, 0.6666666666666666, 0.3333333333333333]], [[0.036036036036036036, 0.21621621621621623, 0.7477477477477478]], [[0.1, 0.6333333333333333, 0.26666666666666666]], [[0.058823529411764705, 0.5, 0.4411764705882353]], [[0.09090909090909091, 0.7727272727272727, 0.13636363636363635]], [[0.0, 0.0, 1.0]], [[0.15384615384615385, 0.8076923076923077, 0.038461538461538464]], [[0.012345679012345678, 0.06172839506172839, 0.9259259259259259]], [[0.014184397163120567, 0.014184397163120567, 0.9716312056737588]], [[0.046511627906976744, 0.046511627906976744, 0.9069767441860465]], [[0.0, 0.025, 0.975]], [[0.0, 0.0, 1.0]], [[0.0, 1.0, 0.0]], [[0.6666666666666666, 0.3333333333333333, 0.0]], [[0.0, 0.0, 1.0]], [[0.0, 0.38095238095238093, 0.6190476190476191]], [[0.6381118881118881, 0.10314685314685315, 0.25874125874125875]], [[0.7249466950959488, 0.11727078891257996, 0.15778251599147122]], [[0.5407725321888412, 0.15021459227467812, 0.3090128755364807]], [[0.6702702702702703, 0.15675675675675677, 0.17297297297297298]], [[0.727810650887574, 0.08284023668639054, 0.1893491124260355]], [[0.6341463414634146, 0.11382113821138211, 0.25203252032520324]], [[0.7222222222222222, 0.12962962962962962, 0.14814814814814814]], [[0.77, 0.07, 0.16]], [[0.6290322580645161, 0.11290322580645161, 0.25806451612903225]], [[0.7358490566037735, 0.11320754716981132, 0.1509433962264151]], [[0.0, 0.1111111111111111, 0.8888888888888888]], [[1.0, 0.0, 0.0]], [[0.125, 0.875, 0.0]], [[0.0, 0.0, 1.0]], [[0.9782608695652174, 0.0, 0.021739130434782608]], [[1.0, 0.0, 0.0]], [[0.0, 0.0, 1.0]], [[0.0625, 0.9375, 0.0]], [[0.041666666666666664, 0.125, 0.8333333333333334]], [[0.05, 0.0, 0.95]], [[0.0, 0.0, 1.0]], [[0.3333333333333333, 0.0, 0.6666666666666666]], [[0.0, 0.75, 0.25]], [[0.9067796610169492, 0.0847457627118644, 0.00847457627118644]], [[0.985981308411215, 0.004672897196261682, 0.009345794392523364]], [[1.0, 0.0, 0.0]], [[0.9090909090909091, 0.030303030303030304, 0.06060606060606061]], [[0.0, 0.3333333333333333, 0.6666666666666666]], [[1.0, 0.0, 0.0]], [[0.13636363636363635, 0.8636363636363636, 0.0]], [[0.24271844660194175, 0.038834951456310676, 0.7184466019417476]], [[0.013333333333333334, 0.04, 0.9466666666666667]], [[0.014084507042253521, 0.0, 0.9859154929577465]], [[0.0, 0.0, 1.0]], [[1.0, 0.0, 0.0]], [[0.0, 0.75, 0.25]], [[0.8571428571428571, 0.03571428571428571, 0.10714285714285714]]]}