{"n_classes": 3, "learning_rate": 0.1, "classes": ["Pizza", "Shawarma", "Sushi"], "tree_list": [[{"children_left": [1, 2, 3, 4, 5, -1, -1, -1, 9, -1, -1, 12, 13, 14, -1, -1, 17, -1, -1, -1, 21, 22, 23, 24, -1, -1, 27, -1, -1, 30, 31, -1, -1, -1, 35, 36, 37, -1, -1, 40, -1, -1, 43, 44, -1, -1, 47, -1, -1], "children_right": [20, 11, 8, 7, 6, -1, -1, -1, 10, -1, -1, 19, 16, 15, -1, -1, 18, -1, -1, -1, 34, 29, 26, 25, -1, -1, 28, -1, -1, 33, 32, -1, -1, -1, 42, 39, 38, -1, -1, 41, -1, -1, 46, 45, -1, -1, 48, -1, -1], "feature": [6, 8, 11, 50, 49, -2, -2, -2, 62, -2, -2, 0, 8, 49, -2, -2, 11, -2, -2, -2, 8, 29, 35, 44, -2, -2, 8, -2, -2, 5, 7, -2, -2, -2, 11, 49, 0, -2, -2, 1, -2, -2, 68, 8, -2, -2, 8, -2, -2], "threshold": [0.5, 5.25, 0.5, 0.5, 0.5, -2.0, -2.0, -2.0, 0.5, -2.0, -2.0, 3.5, 14.833333492279053, 0.5, -2.0, -2.0, 0.5, -2.0, -2.0, -2.0, 6.25, 0.5, 0.5, 0.5, -2.0, -2.0, 2.25, -2.0, -2.0, 0.5, 0.5, -2.0, -2.0, -2.0, 0.5, 0.5, 3.5, -2.0, -2.0, 11.5, -2.0, -2.0, 0.5, 12.333333492279053, -2.0, -2.0, 15.5, -2.0, -2.0], "value": [-9.856849636019868e-17, -0.29931999398224934, -0.22454106280193242, -0.2556521739130435, -0.268084606345476, -0.910063105281719, -0.10658835869751963, 1.9861830742659758, 0.16434782608695653, 1.9861830742659758, -1.0034904013961603, -0.31150730469775323, -0.29201581027667917, -0.3108996986655169, -0.9544793608115353, -0.6887879302738306, -0.23976176295413942, -0.858828781606057, 0.08366358975370723, -1.0034904013961603, 0.30245971419884293, 0.5192497868712691, 0.5500621118012411, 0.5912884653563618, 1.806249022490014, -1.0034904013961603, 0.20280936454849494, -0.7045230538299471, 1.4256192975793254, -0.2356521739130435, -0.002318840579710139, -1.0034904013961605, 1.9861830742659758, -1.0034904013961605, 0.1280702235632976, 0.009175412293853031, -0.08949832775919739, 0.0862036691722816, -0.6977283413852603, 0.5292126909518213, 1.7223883558251993, -0.006932576175448414, 0.452583120204604, 0.5532367149758457, 1.2645377525544261, 1.986183074265976, 0.16434782608695647, -0.006932576175448526, 1.559086863457099]}, {"children_left": [1, 2, 3, 4, 5, -1, -1, 8, -1, -1, 11, 12, -1, -1, 15, -1, -1, 18, 19, 20, -1, -1, 23, -1, -1, 26, 27, -1, -1, -1, 31, 32, 33, 34, -1, -1, 37, -1, -1, 40, 41, -1, -1, 44, -1, -1, -1], "children_right": [30, 17, 10, 7, 6, -1, -1, 9, -1, -1, 14, 13, -1, -1, 16, -1, -1, 25, 22, 21, -1, -1, 24, -1, -1, 29, 28, -1, -1, -1, 46, 39, 36, 35, -1, -1, 38, -1, -1, 43, 42, -1, -1, 45, -1, -1, -1], "feature": [6, 66, 1, 2, 1, -2, -2, 8, -2, -2, 8, 29, -2, -2, 3, -2, -2, 5, 1, 2, -2, -2, 3, -2, -2, 49, 1, -2, -2, -2, 21, 8, 5, 1, -2, -2, 65, -2, -2, 8, 68, -2, -2, 36, -2, -2, -2], "threshold": [0.5, 0.5, 5.75, 0.5, 3.25, -2.0, -2.0, 16.5, -2.0, -2.0, 19.0, 0.5, -2.0, -2.0, 0.5, -2.0, -2.0, 0.5, 3.75, 0.5, -2.0, -2.0, 0.5, -2.0, -2.0, 0.5, 7.25, -2.0, -2.0, -2.0, 0.5, 6.25, 0.5, 2.5, -2.0, -2.0, 0.5, -2.0, -2.0, 13.75, 0.5, -2.0, -2.0, 0.5, -2.0, -2.0, -2.0], "value": [1.949648172374351e-16, 0.2404182337896828, 0.4713287738153394, 0.26366914103923683, -0.10470764617691153, 0.453397305677323, -0.5986747313059725, 0.3773172987974103, 1.2754815020177581, -0.6512783331551372, 0.5809516700877009, 0.6043634939287094, 1.8171943906556687, 0.453397305677323, 0.10845849802371549, 1.3371378167432912, -0.5285365955070861, -0.1298707403055222, 0.28724637681159415, -0.07942028985507242, -1.0195035460992905, 0.28974165547992153, 0.40946859903381644, 1.6412205732391079, 0.24298289828066388, -0.28435856146001004, -0.290186335403726, -0.9157781340023458, -0.3993347664038744, 1.9262981574539368, -0.24294010337488756, -0.24766867884160002, -0.31079283887468084, -0.25019654556283516, 1.9262981574539368, -0.7740200708031884, -0.3350979455327273, -1.0195035460992905, -0.8012960125027553, -0.19640542785931792, -0.11006211180124216, -0.5138808656386622, 0.6170529558747245, -0.2872634271099737, -0.9186199261145911, 0.663811713073982, 1.9262981574539368]}, {"children_left": [1, 2, 3, 4, 5, -1, -1, 8, -1, -1, 11, -1, -1, 14, 15, 16, -1, -1, 19, -1, -1, 22, 23, -1, -1, 26, -1, -1, 29, 30, -1, 32, 33, -1, -1, 36, -1, -1, 39, -1, 41, 42, -1, -1, -1], "children_right": [28, 13, 10, 7, 6, -1, -1, 9, -1, -1, 12, -1, -1, 21, 18, 17, -1, -1, 20, -1, -1, 25, 24, -1, -1, 27, -1, -1, 38, 31, -1, 35, 34, -1, -1, 37, -1, -1, 40, -1, 44, 43, -1, -1, -1], "feature": [57, 35, 43, 44, 2, -2, -2, 1, -2, -2, 0, -2, -2, 1, 68, 5, -2, -2, 2, -2, -2, 0, 66, -2, -2, 1, -2, -2, 5, 8, -2, 8, 68, -2, -2, 6, -2, -2, 1, -2, 69, 68, -2, -2, -2], "threshold": [0.5, 0.5, 0.5, 0.5, 0.5, -2.0, -2.0, 2.5, -2.0, -2.0, 1.5, -2.0, -2.0, 5.25, 0.5, 0.5, -2.0, -2.0, 0.5, -2.0, -2.0, 4.5, 0.5, -2.0, -2.0, 11.5, -2.0, -2.0, 0.5, 2.5, -2.0, 13.0, 0.5, -2.0, -2.0, 0.5, -2.0, -2.0, 6.25, -2.0, 0.5, 0.5, -2.0, -2.0, -2.0], "value": [1.691400642733282e-16, -0.062245470142695866, -0.1556488337137461, -0.18909975105656437, -0.20684782608695904, 0.009733108700154586, -0.7871419508867838, 0.6817391304347827, 2.0947176684881605, 2.0947176684881605, 0.6817391304347826, 2.0947176684881605, 2.094717668488159, 0.22049882035726356, 0.4390920716112541, 0.48973913043478334, 0.8295257993907945, 1.7570683470650017, -0.13644268774703555, 1.070514726837912, -0.977891156462585, -0.023178902352102675, -0.11237851662404082, -0.5990763698248217, 0.29353318489634395, 0.4317391304347825, 1.710641565369317, -0.20973895022489866, 0.5826400313356845, 0.14327759197324416, 2.0947176684881605, 0.045375494071146265, -0.09603864734299515, -0.977891156462585, 1.070514726837912, 0.6817391304347826, 2.0947176684881605, 2.0947176684881605, 0.6409228039041714, 2.09471766848816, 0.44644501278772364, 0.5484057971014492, 2.0947176684881597, 0.04631178518766346, -0.977891156462585]}], [{"children_left": [1, 2, 3, 4, 5, -1, -1, -1, 9, 10, -1, -1, 13, -1, -1, 16, 17, 18, -1, -1, 21, -1, -1, 24, 25, -1, -1, 28, -1, -1, 31, 32, 33, 34, -1, -1, 37, -1, -1, 40, 41, -1, -1, 44, -1, -1, 47, 48, 49, -1, -1, 52, -1, -1, 55, 56, -1, -1, 59, -1, -1], "children_right": [30, 15, 8, 7, 6, -1, -1, -1, 12, 11, -1, -1, 14, -1, -1, 23, 20, 19, -1, -1, 22, -1, -1, 27, 26, -1, -1, 29, -1, -1, 46, 39, 36, 35, -1, -1, 38, -1, -1, 43, 42, -1, -1, 45, -1, -1, 54, 51, 50, -1, -1, 53, -1, -1, 58, 57, -1, -1, 60, -1, -1], "feature": [6, 8, 11, 50, 49, -2, -2, -2, 62, 66, -2, -2, 1, -2, -2, 0, 8, 49, -2, -2, 11, -2, -2, 66, 53, -2, -2, 29, -2, -2, 8, 57, 35, 44, -2, -2, 8, -2, -2, 5, 63, -2, -2, 68, -2, -2, 11, 49, 0, -2, -2, 1, -2, -2, 68, 8, -2, -2, 8, -2, -2], "threshold": [0.5, 5.25, 0.5, 0.5, 0.5, -2.0, -2.0, -2.0, 0.5, 0.5, -2.0, -2.0, 6.5, -2.0, -2.0, 3.5, 14.833333492279053, 0.5, -2.0, -2.0, 0.5, -2.0, -2.0, 0.5, 0.5, -2.0, -2.0, 0.5, -2.0, -2.0, 6.25, 0.5, 0.5, 0.5, -2.0, -2.0, 2.25, -2.0, -2.0, 0.5, 0.5, -2.0, -2.0, 0.5, -2.0, -2.0, 0.5, 0.5, 3.5, -2.0, -2.0, 11.5, -2.0, -2.0, 0.5, 12.333333492279053, -2.0, -2.0, 15.5, -2.0, -2.0], "value": [-0.000125831810625815, -0.26981524225438, -0.19947956423788007, -0.22829550708050056, -0.23966578501320301, -0.8601567828724862, -0.08086203394907986, 1.723120665683483, 0.1607197212948768, 0.6248124255350397, 1.8036733005181118, 1.7258269722749149, -0.30337298294528614, -0.9640076603329658, -0.9535279968419469, -0.2812784010458017, -0.2633680140057232, -0.2803330919133636, -0.9073219452983774, -0.6391540742550046, -0.21642355185033457, -0.8112454636487054, 0.06864577272863089, -0.3034646912981505, -0.3011147057036032, -0.953904556917577, -0.9918436634717938, -0.30725231513877405, -0.9657647701712517, -0.9512149546801741, 0.2723924885328879, 0.4687443624844259, 0.4965146531129923, 0.5331605119552383, 1.519780795223566, -0.9537769650397946, 0.1878437651725327, -0.6715681608892191, 1.263409621854511, -0.21162775791544627, -0.003716506009633358, -0.9587763597440961, 1.6582326794175237, -0.3007325801607946, -0.9537769650397944, -0.9509961067527535, 0.11444382021225007, 0.006931494451441039, -0.082362421034498, 0.07838973091102866, -0.6611247352515804, 0.477534562553011, 1.4575058959554419, -0.03160530194809441, 0.4078892269946942, 0.4997474663991988, 1.0784713278180493, 1.6732057824441993, 0.14484063233634067, -0.0200816436049068, 1.3194905278918725]}, {"children_left": [1, 2, 3, 4, 5, -1, -1, 8, -1, -1, 11, 12, -1, -1, 15, -1, -1, 18, 19, 20, -1, -1, 23, -1, -1, 26, 27, -1, -1, -1, 31, 32, 33, 34, -1, -1, 37, -1, -1, 40, 41, -1, -1, 44, -1, -1, 47, -1, -1], "children_right": [30, 17, 10, 7, 6, -1, -1, 9, -1, -1, 14, 13, -1, -1, 16, -1, -1, 25, 22, 21, -1, -1, 24, -1, -1, 29, 28, -1, -1, -1, 46, 39, 36, 35, -1, -1, 38, -1, -1, 43, 42, -1, -1, 45, -1, -1, 48, -1, -1], "feature": [6, 66, 1, 2, 5, -2, -2, 8, -2, -2, 8, 57, -2, -2, 3, -2, -2, 5, 1, 8, -2, -2, 3, -2, -2, 49, 1, -2, -2, -2, 21, 5, 8, 1, -2, -2, 2, -2, -2, 69, 13, -2, -2, 8, -2, -2, 65, -2, -2], "threshold": [0.5, 0.5, 5.75, 0.5, 0.5, -2.0, -2.0, 16.5, -2.0, -2.0, 19.0, 0.5, -2.0, -2.0, 0.5, -2.0, -2.0, 0.5, 4.5, 5.5, -2.0, -2.0, 0.5, -2.0, -2.0, 0.5, 7.25, -2.0, -2.0, -2.0, 0.5, 0.5, 6.5, 2.5, -2.0, -2.0, 0.5, -2.0, -2.0, 0.5, 0.5, -2.0, -2.0, 5.75, -2.0, -2.0, 0.5, -2.0, -2.0], "value": [-5.648597456901325e-05, 0.2141910306956107, 0.4232993961931057, 0.23510721928333125, -0.09855840397717515, 0.45374907309605855, -0.5810966518685778, 0.33804661369348765, 1.0873525552965753, -0.6095319892726231, 0.522645480999553, 0.5441224351740742, 1.5339502417472695, 0.389440732318526, 0.08920149675012425, 1.1502575494762557, -0.5265625167512336, -0.12113589775983026, 0.2562264474396497, 0.013244757825376425, -1.0124683163466608, 0.37688229116360045, 0.4182142405158318, 1.5497906986034389, 0.4008425957696893, -0.26089972931519345, -0.26616967460899565, -0.8732080065122018, -0.37737050012948103, 1.616402462036629, -0.21655135421821214, -0.2208283494925576, -0.12795563143363842, -0.21855413379098837, 1.7728901874202585, -0.713221541380737, -0.033474336118116135, -0.8312538300397055, 0.1678846953331929, -0.25200393325411957, -0.26476349893755496, -0.8225071752730446, 1.8125548783273666, -0.07732987889812551, -0.7410210078522004, 0.21717889292828832, 0.5946520828160189, 1.631379085984518, 1.6719360481112155]}, {"children_left": [1, 2, 3, 4, 5, -1, -1, 8, -1, -1, 11, 12, -1, -1, 15, -1, -1, 18, 19, 20, -1, -1, 23, -1, -1, 26, 27, -1, -1, 30, -1, -1, 33, 34, 35, 36, -1, -1, 39, -1, -1, 42, -1, -1, 45, 46, 47, -1, -1, 50, -1, -1, 53, 54, -1, -1, 57, -1, -1], "children_right": [32, 17, 10, 7, 6, -1, -1, 9, -1, -1, 14, 13, -1, -1, 16, -1, -1, 25, 22, 21, -1, -1, 24, -1, -1, 29, 28, -1, -1, 31, -1, -1, 44, 41, 38, 37, -1, -1, 40, -1, -1, 43, -1, -1, 52, 49, 48, -1, -1, 51, -1, -1, 56, 55, -1, -1, 58, -1, -1], "feature": [57, 35, 43, 44, 2, -2, -2, 8, -2, -2, 8, 63, -2, -2, 6, -2, -2, 1, 8, 5, -2, -2, 68, -2, -2, 66, 6, -2, -2, 0, -2, -2, 5, 8, 8, 0, -2, -2, 68, -2, -2, 3, -2, -2, 1, 66, 8, -2, -2, 6, -2, -2, 69, 68, -2, -2, 8, -2, -2], "threshold": [0.5, 0.5, 0.5, 0.5, 0.5, -2.0, -2.0, 8.0, -2.0, -2.0, 6.75, 0.5, -2.0, -2.0, 0.5, -2.0, -2.0, 6.75, 10.75, 0.5, -2.0, -2.0, 0.5, -2.0, -2.0, 0.5, 0.5, -2.0, -2.0, 4.5, -2.0, -2.0, 0.5, 13.0, 2.5, 3.0, -2.0, -2.0, 0.5, -2.0, -2.0, 0.5, -2.0, -2.0, 6.25, 0.5, 14.5, -2.0, -2.0, 0.5, -2.0, -2.0, 0.5, 0.5, -2.0, -2.0, 14.25, -2.0, -2.0], "value": [0.0001823177851947331, -0.056123078732511406, -0.14060032364961267, -0.17101259072331174, -0.18709813322470498, 0.008738953712869117, -0.7447786538627195, 0.6182513613450443, 1.717548571896307, 1.7613920891799877, 0.6207200954286599, 0.6441721262189054, 1.8873181160370562, 1.860038521360608, 0.6171120906916993, 1.7292193224656776, 1.7750721453377853, 0.19960067429173386, 0.354357948612089, 0.24739168938209452, 0.014991080710291916, 1.0288673150456173, 0.4764091931181083, 1.551783503328661, 0.04973833173213618, -0.08440443352693926, -0.2484244873794312, -0.9471692196387126, 0.047766155278217655, 0.21800754076359263, 0.22991402975473785, 1.513903747933342, 0.5272211194239064, 0.12865892055606787, 0.03827251635053914, 0.615488565541141, 1.7410656054046194, 1.7265986078744242, -0.08999771680292794, -0.9421636761618221, 0.9189076743866422, 0.6257841436864761, 1.7781671730549322, 1.7848513449597465, 0.5800916151920896, 0.6172737311647599, 0.6228724784795511, 1.7859428112631013, 1.7372834533187047, 0.6157865639092683, 1.7220723333919794, 1.7548599839131607, 0.4029297684987762, 0.4972211196039401, 1.7526017473627356, 0.024061170032804644, -0.304255364789955, -0.9556782695508282, -0.9607470875223321]}], [{"children_left": [1, 2, 3, 4, 5, -1, -1, -1, 9, 10, -1, -1, 13, -1, -1, 16, 17, 18, -1, -1, 21, -1, -1, 24, 25, -1, -1, 28, -1, -1, 31, 32, 33, 34, -1, -1, 37, -1, -1, 40, 41, -1, -1, 44, -1, -1, 47, 48, 49, -1, -1, 52, -1, -1, 55, 56, -1, -1, 59, -1, -1], "children_right": [30, 15, 8, 7, 6, -1, -1, -1, 12, 11, -1, -1, 14, -1, -1, 23, 20, 19, -1, -1, 22, -1, -1, 27, 26, -1, -1, 29, -1, -1, 46, 39, 36, 35, -1, -1, 38, -1, -1, 43, 42, -1, -1, 45, -1, -1, 54, 51, 50, -1, -1, 53, -1, -1, 58, 57, -1, -1, 60, -1, -1], "feature": [6, 8, 11, 50, 49, -2, -2, -2, 62, 4, -2, -2, 60, -2, -2, 0, 8, 49, -2, -2, 11, -2, -2, 66, 53, -2, -2, 29, -2, -2, 8, 57, 35, 44, -2, -2, 8, -2, -2, 5, 63, -2, -2, 3, -2, -2, 11, 49, 0, -2, -2, 1, -2, -2, 68, 8, -2, -2, 8, -2, -2], "threshold": [0.5, 5.25, 0.5, 0.5, 0.5, -2.0, -2.0, -2.0, 0.5, 0.5, -2.0, -2.0, 0.5, -2.0, -2.0, 3.5, 14.833333492279053, 0.5, -2.0, -2.0, 0.5, -2.0, -2.0, 0.5, 0.5, -2.0, -2.0, 0.5, -2.0, -2.0, 6.25, 0.5, 0.5, 0.5, -2.0, -2.0, 2.25, -2.0, -2.0, 0.5, 0.5, -2.0, -2.0, 0.5, -2.0, -2.0, 0.5, 0.5, 3.5, -2.0, -2.0, 11.5, -2.0, -2.0, 0.5, 12.333333492279053, -2.0, -2.0, 15.5, -2.0, -2.0], "value": [-0.0002503502671155268, -0.24314203517262678, -0.17845800928472266, -0.20512673088289918, -0.21532572810341372, -0.8202063625274499, -0.05509893043172024, 1.4801627007068503, 0.15490101069248255, 0.5830043567145938, 1.4820006160407757, 1.6646701418191168, -0.2732023353296287, -0.9110000164182916, -0.9300693623121371, -0.2536840997539555, -0.23727159834127526, -0.25284508381145016, -0.8679314311289897, -0.5943129406752569, -0.1941778440265446, -0.7682039692463262, 0.06042901090960684, -0.27401490105344634, -0.2700405434404076, -0.9135972424257978, -0.9802594472795131, -0.2804206303826969, -0.9330546651031707, -0.9082894220611976, 0.2451891495150258, 0.4236108105010395, 0.44859106968050116, 0.4810442638978487, 1.3253484005469596, -0.9107429270901709, 0.17523531838823064, -0.6405071804203095, 1.142574343840614, -0.18840553939578833, -0.004844906589797619, -0.9211729720416009, 1.4404982033453668, -0.2670743820269272, -0.9077570522197516, -0.9099045745408171, 0.1016638386272251, 0.004728686502727838, -0.07613524951218784, 0.07149169897251662, -0.6295554611510754, 0.43090348441917553, 1.2734744834684097, -0.060478289122709264, 0.36623978324938244, 0.45124841555469675, 0.9319105428703442, 1.469042374818605, 0.12280597255689175, -0.052847013280096555, 1.15379944927217]}, {"children_left": [1, 2, 3, 4, 5, -1, -1, 8, -1, -1, 11, 12, -1, -1, 15, -1, -1, 18, 19, 20, -1, -1, 23, -1, -1, 26, 27, -1, -1, -1, 31, 32, 33, 34, -1, -1, 37, -1, -1, 40, 41, -1, -1, 44, -1, -1, 47, -1, -1], "children_right": [30, 17, 10, 7, 6, -1, -1, 9, -1, -1, 14, 13, -1, -1, 16, -1, -1, 25, 22, 21, -1, -1, 24, -1, -1, 29, 28, -1, -1, -1, 46, 39, 36, 35, -1, -1, 38, -1, -1, 43, 42, -1, -1, 45, -1, -1, 48, -1, -1], "feature": [6, 66, 1, 2, 3, -2, -2, 29, -2, -2, 8, 57, -2, -2, 3, -2, -2, 5, 1, 2, -2, -2, 3, -2, -2, 49, 1, -2, -2, -2, 21, 5, 8, 1, -2, -2, 2, -2, -2, 69, 1, -2, -2, 8, -2, -2, 66, -2, -2], "threshold": [0.5, 0.5, 5.75, 0.5, 0.5, -2.0, -2.0, 0.5, -2.0, -2.0, 19.0, 0.5, -2.0, -2.0, 0.5, -2.0, -2.0, 0.5, 3.75, 0.5, -2.0, -2.0, 0.5, -2.0, -2.0, 0.5, 7.25, -2.0, -2.0, -2.0, 0.5, 0.5, 6.5, 2.5, -2.0, -2.0, 0.5, -2.0, -2.0, 0.5, 12.5, -2.0, -2.0, 5.75, -2.0, -2.0, 0.5, -2.0, -2.0], "value": [-0.00026613194199169907, 0.1903315546153518, 0.37943849681193886, 0.21023812858820684, -0.09222911390456866, -0.7791152232474986, 0.13316461060049964, 0.30355249063385037, 0.9318188004628065, -1.0138448414114811, 0.46875886286996044, 0.48819280125653525, 1.3364795230621709, 0.33546180523152197, 0.07654665179545343, 1.0234632076142878, -0.5135151690369395, -0.11292101935755401, 0.22774844569014807, -0.08959082011226327, -0.9946564330793006, 0.19958071929652393, 0.3335282009576186, 1.2387726199798674, 0.16605597553012286, -0.23909489530114753, -0.24385093815880524, -0.8365325012407523, -0.35302610747751056, 1.4083356713134512, -0.19286309493175494, -0.19672933003263457, -0.11159030982180174, -0.19053401195249933, 1.652898115403461, -0.6596321689431985, -0.02926330617121707, -0.7901033665809252, 0.15707626003321185, -0.22530886029120084, -0.23714777287163277, -0.8029951909224744, -0.13484934826582162, -0.0632382294487342, -0.6871755804944917, 0.21472624252724268, 0.5404328292017831, 1.4306420989011224, 1.4923622650706523]}, {"children_left": [1, 2, 3, 4, 5, -1, -1, 8, -1, -1, 11, 12, -1, -1, 15, -1, -1, 18, 19, 20, -1, -1, 23, -1, -1, 26, 27, -1, -1, 30, -1, -1, 33, 34, 35, 36, -1, -1, 39, -1, -1, 42, -1, -1, 45, 46, 47, -1, -1, 50, -1, -1, 53, 54, -1, -1, 57, -1, -1], "children_right": [32, 17, 10, 7, 6, -1, -1, 9, -1, -1, 14, 13, -1, -1, 16, -1, -1, 25, 22, 21, -1, -1, 24, -1, -1, 29, 28, -1, -1, 31, -1, -1, 44, 41, 38, 37, -1, -1, 40, -1, -1, 43, -1, -1, 52, 49, 48, -1, -1, 51, -1, -1, 56, 55, -1, -1, 58, -1, -1], "feature": [57, 35, 43, 44, 2, -2, -2, 8, -2, -2, 8, 4, -2, -2, 6, -2, -2, 1, 68, 5, -2, -2, 2, -2, -2, 0, 1, -2, -2, 1, -2, -2, 5, 8, 8, 8, -2, -2, 68, -2, -2, 8, -2, -2, 1, 66, 8, -2, -2, 6, -2, -2, 69, 68, -2, -2, 4, -2, -2], "threshold": [0.5, 0.5, 0.5, 0.5, 0.5, -2.0, -2.0, 8.0, -2.0, -2.0, 6.75, 0.5, -2.0, -2.0, 0.5, -2.0, -2.0, 5.25, 0.5, 0.5, -2.0, -2.0, 0.5, -2.0, -2.0, 4.5, 6.75, -2.0, -2.0, 11.5, -2.0, -2.0, 0.5, 13.0, 2.5, 1.5, -2.0, -2.0, 0.5, -2.0, -2.0, 17.0, -2.0, -2.0, 6.25, 0.5, 14.5, -2.0, -2.0, 0.5, -2.0, -2.0, 0.5, 0.5, -2.0, -2.0, 0.5, -2.0, -2.0], "value": [0.0005164822091073587, -0.0503328704326464, -0.1265576456806878, -0.15412764411008725, -0.16867740295449626, 0.009514720277809368, -0.7060691609198462, 0.5597805231889287, 1.4772447883367128, 1.5345262461421745, 0.5636113150019431, 0.6063172302883111, 1.651934610253611, 1.7373459968313205, 0.5570411741886555, 1.4902151529604657, 1.5482308026161922, 0.18040956936859506, 0.3607087916658615, 0.40442227342237014, 0.6586405065012673, 1.2908612142667086, -0.13603531920355272, 0.8603237858846651, -0.952819656434737, -0.020579727618521646, -0.09572124557661638, 0.28523507170362833, -0.5214084000051761, 0.3626420139677612, 1.3081529697010468, -0.2062692134257069, 0.47648474702696314, 0.11839550891100956, 0.034055436072744805, 0.5615118382411521, 1.5549306248303438, 1.4873228562067369, -0.08315709774245685, -0.9099945568824332, 0.801247295546445, 0.5822659095214655, 1.6084892691961585, 1.5835290419416697, 0.5239863806545899, 0.5576306304316386, 0.5680016278941379, 1.5697020140513653, 1.5026913016841783, 0.5548758342306622, 1.4800350084482898, 1.5250349910003702, 0.3636814258345342, 0.4501620604552828, 1.5235332371963608, 0.0064936925163057765, -0.28492333382108004, -0.9346671372392344, -0.9299467448111502]}]]}